MTP
version = 1.1.0
potential_name = MTP1m
scaling = 2.325680393613779e-01
species_count = 4
potential_tag = 
radial_basis_type = RBChebyshev
	min_dist = 1.993474741928789e+00
	max_dist = 5.000000000000000e+00
	radial_basis_size = 8
	radial_funcs_count = 4
	radial_coeffs
		0-0
			{6.614594906680910e-02, -7.106492958995791e-02, -5.620958778888727e-02, -1.507620632865208e-02, -2.687952607139570e-03, 3.726645235493658e-02, 1.681193580302446e-02, 5.610746762762505e-03}
			{-1.170503151265316e-01, -2.349122053575624e-01, -2.807243530683644e-01, -1.500597633286569e-01, -7.378814035186865e-02, -4.388667873045052e-02, -3.307751879952754e-02, -1.856097528364280e-02}
			{-7.713001422113237e-02, -2.126364305763432e-01, -1.011985376656883e-01, -1.824785557755107e-01, -8.704826515345372e-02, -3.881334380511173e-02, -2.244575968651292e-02, -2.014997746046046e-02}
			{-4.751559504105386e-02, -5.336490057369851e-02, -1.284899527031683e-01, -7.694942224214318e-02, -4.357784753035925e-02, -3.568020501023511e-02, -3.489736724338727e-03, -1.093654624398467e-02}
		0-1
			{4.084626077727431e-02, -1.294982108984105e-01, -1.388844862842413e-01, -7.718439352105307e-02, -6.118132618650274e-02, 2.117706740955314e-02, 1.720806941742770e-02, 1.091326472466148e-02}
			{5.189477090783525e-02, 1.086498421760708e-01, -7.230672988062957e-02, -1.371615271794572e-02, -9.257192219742140e-03, 1.434417410419873e-02, -2.512452496021886e-03, -1.224043434998636e-03}
			{9.585371552099728e-02, -1.140226265845001e-01, 2.435039971539309e-01, -9.179191361651473e-02, 7.847297102626900e-02, -5.349336894914714e-02, -4.068473607978284e-03, -5.067066450394055e-02}
			{1.090193262737888e-01, 2.418683326731902e-01, 1.111738700212677e-01, 8.409705757644634e-02, 6.814957030831208e-02, 1.927863281011039e-02, 2.656488520435621e-02, -9.560042556409861e-04}
		0-2
			{3.023245728720912e-02, -1.588434140349369e-01, -1.086276926964136e-01, -8.443534991428114e-02, -3.122714357478588e-02, 7.927977352936131e-03, 1.587320299693925e-02, 3.606421186107641e-03}
			{1.167817331550660e-01, 1.579925567768278e-01, 9.852588882560978e-02, 5.958973350907998e-02, 1.000412901803396e-01, 5.001001721918782e-02, 3.446541942958325e-02, 4.102665944141052e-03}
			{1.083054813582478e-01, 1.524143399962855e-01, 1.817542655197610e-01, -1.112582223489825e-02, -2.413691188880075e-02, -6.913476484744839e-02, -6.875478982409378e-02, -3.473973578465794e-02}
			{1.342085893043950e-01, 2.892533948357503e-01, 1.434754908647445e-01, 1.171335718303589e-01, 6.958379153869794e-02, 3.314703099567733e-02, 1.846697773626627e-02, 8.395318062208273e-04}
		0-3
			{3.705363608108482e-02, -1.430026081706021e-01, -1.392238695728535e-01, -7.515723419931242e-02, -4.717345472534648e-02, 3.168963840070455e-02, 2.590973177614970e-02, 1.327757132393790e-02}
			{1.106035042274695e-02, -2.838728982809715e-02, -1.263290966387043e-01, -9.509105058367556e-02, -3.330933237168590e-02, -1.521725729309586e-02, -3.791964029770175e-03, -2.464758123758752e-03}
			{-8.792495201441831e-02, -1.778102145603978e-01, -1.720627881655351e-02, -5.914372608695186e-02, -1.000867206010278e-03, 9.223337029360394e-03, -1.064427067715163e-02, -2.232341138495050e-02}
			{5.652219517170673e-02, 1.120220845327780e-01, 2.511907334267794e-02, -1.292562882296790e-03, 3.115985414386132e-02, -7.283259126356673e-03, 2.020818852057380e-02, -4.086423761745623e-03}
		1-0
			{1.142575275036202e-01, -2.051681297997401e-02, -5.887810075702334e-03, 2.600472115077690e-03, 2.764885029842092e-02, 4.977765386172638e-02, 3.169894359206464e-02, 7.465956798233332e-03}
			{5.423973440534093e-02, 3.085816633383146e-02, -6.309882333929266e-02, -3.702277903967421e-02, 4.214243763306261e-02, 2.359912327182312e-02, 1.282417125317161e-02, -4.948551165235315e-03}
			{1.615519085296603e-02, 4.059972092293251e-02, -2.030311059350236e-02, -7.923902533884540e-02, -1.018451360874104e-01, 2.944095546964779e-02, 4.495064378299981e-04, 1.580746694878075e-02}
			{8.500905836509684e-03, 5.613971840463621e-02, -4.641406700513761e-02, -3.183979858897911e-02, -1.112907617132619e-02, -1.156285439327950e-02, 1.150916136864644e-02, -2.109668666547012e-03}
		1-1
			{1.535794188228133e-01, 1.564474134397629e-02, 2.594009940204762e-02, 4.092807095635607e-03, 3.567256455330408e-02, 4.855378002587678e-02, 3.518368508551363e-02, 1.224692574094500e-02}
			{-6.559319179403363e-02, -6.571077848051672e-02, -2.218594826305430e-01, -6.992717343435396e-02, -1.008253187716240e-02, 5.368713678289915e-02, 2.093598475614760e-02, 1.145425994387342e-02}
			{2.256560510828503e-02, -1.974837860948381e-01, 9.436887906358106e-02, -1.655673412239752e-01, -2.663660253600208e-02, -4.390532986728116e-02, -3.091469315199091e-03, -1.826692530696119e-02}
			{3.674760979072983e-02, 1.980062639603652e-01, -5.539656197402927e-03, 5.472022113789036e-02, 1.368066443240300e-03, 2.545973945079085e-02, 1.252116526253017e-02, 7.108620716620850e-03}
		1-2
			{6.637121306002160e-02, -1.312998245140834e-01, -8.173189698770489e-02, -9.236068269072692e-02, -1.717461227062092e-02, 3.556176223221338e-04, 1.480660654344893e-02, 4.255493925032472e-03}
			{-1.636668702939080e-02, -5.623372270426458e-03, -1.148608480654184e-01, -1.995977313652948e-02, 4.154820941919540e-02, 7.751677855268385e-02, 4.094280622224188e-02, 2.252262724404881e-02}
			{5.542977175945121e-02, 2.385245195251013e-02, 9.756219795315951e-02, -7.375108183045535e-02, -3.954628735542220e-02, -3.356643365886193e-02, -5.877615638522211e-02, -1.863969508223223e-02}
			{9.553453779296862e-02, 2.495369516801064e-01, 7.585797265120341e-02, 9.545605211139088e-02, 3.725985710316568e-02, 4.721940384744579e-02, 1.561442105996604e-02, 8.149967965973870e-03}
		1-3
			{1.076635709287396e-01, -4.722029623735453e-02, -4.174638071405264e-02, -3.284727557430793e-02, 4.137659865435113e-03, 3.857706256823745e-02, 3.148518845512379e-02, 1.261028520960860e-02}
			{-2.320634196484026e-02, 7.609167679671322e-02, -1.565707837915322e-01, 2.242464161284267e-02, 2.070373829610472e-02, 1.002053854111220e-01, 3.289574211999480e-02, 2.784552500116707e-02}
			{4.205043576797238e-02, -1.586253931451573e-01, 1.561221642930495e-01, -7.912293974120886e-02, 7.274465966780123e-02, 3.257213453726819e-02, 1.911349442914255e-02, -1.016832864861476e-02}
			{8.593846230285598e-02, 2.839268573419865e-01, 7.288335210371268e-02, 1.134478671114419e-01, 4.843269619566107e-02, 6.048491613335348e-02, 2.811907214207582e-02, 1.425368025162314e-02}
		2-0
			{1.559483482998426e-01, 5.170295221845868e-02, 3.776756352111853e-02, 1.319979105976396e-02, 4.191194560927703e-02, 3.119690818083009e-02, 1.900006025123200e-02, -8.450437920595731e-05}
			{1.904595954281657e-01, 2.842722486237957e-01, 1.455670852760216e-01, 1.225663115925455e-01, 1.346960754247999e-01, 7.522297630870951e-02, 2.802324978856094e-02, 2.319320039748127e-03}
			{-3.793854011887136e-02, -1.190754999403820e-01, -1.761237477434250e-02, -9.853342596271501e-02, 8.695160668905532e-03, 5.765969530496771e-02, 5.001724268959987e-02, 1.274182094879571e-02}
			{-1.064944143513591e-02, 2.825570287230637e-02, -7.308642307586315e-02, -3.026206158447950e-02, -2.524625518822032e-02, 3.818858796322356e-03, 7.450438410863318e-03, 6.642976192161188e-03}
		2-1
			{2.352140742842103e-01, 1.551545857931881e-01, 1.219331699317793e-01, 4.833974620808370e-02, 8.251352753250714e-02, 5.079287042557319e-02, 3.123376668387583e-02, 6.419146494701637e-03}
			{-4.887723556111801e-02, -5.797327645694994e-02, -1.990045541737154e-01, -6.185112429866094e-02, -1.967617094093535e-03, 6.040898185758180e-02, 2.050173743514713e-02, 1.224543802059560e-02}
			{8.350910086922937e-02, -4.294566888608024e-02, 1.999703094889214e-01, -4.996915610710390e-02, 5.955257397030663e-02, 1.152793285011217e-02, 4.543968523254884e-02, -3.694750918691511e-03}
			{6.826910056198607e-02, 2.500499607784117e-01, 3.588067794763457e-02, 9.984189031378848e-02, 1.555963328960778e-02, 5.435528936484475e-02, 1.258140449453907e-02, 1.644572600637880e-02}
		2-2
			{2.209952205384220e-01, 2.059951678170845e-01, 1.498056177415313e-01, 8.075114999138135e-02, 8.202162420690289e-02, 3.810822045632521e-02, 1.496213605622621e-02, 2.538144660916104e-03}
			{3.704351001705651e-03, 3.131946410660761e-03, -8.349058430381526e-02, -4.927566843543330e-02, 1.134785962931349e-03, 8.022635413071844e-03, -3.432753176799779e-03, -3.707392061553636e-03}
			{2.770645360610215e-02, -1.686474596271615e-02, 7.985399469671214e-02, -4.983746739279288e-02, -1.345546307116232e-02, -9.051501740219211e-03, -1.719566608054415e-02, -8.444892697469576e-03}
			{7.437454296711639e-02, 1.617012016721170e-01, 4.258440059069549e-02, 5.153042241689675e-02, 1.254711105321367e-02, 2.770356823642698e-02, 2.619526995180232e-03, 5.346803048170754e-03}
		2-3
			{2.904815615944661e-01, 3.756868202637501e-01, 2.210389967288027e-01, 1.921153417587181e-01, 1.265631963889209e-01, 1.019010969555703e-01, 3.667181658031297e-02, 1.477586987304230e-02}
			{-4.458483932114377e-02, -8.704102096255699e-02, -1.656325366476433e-01, -6.840090284566112e-02, 1.822591223744006e-02, 5.016436784776190e-02, 2.105971410768249e-02, 7.877612088293190e-03}
			{-4.487795870769807e-02, -2.497370739874941e-01, 3.848722314830943e-02, -7.995797291507432e-02, 6.925115109810952e-02, 8.487205897224252e-02, 6.878227120404136e-02, 2.070021685622421e-02}
			{3.992927530980225e-02, 6.479999591410475e-02, 2.972728079008242e-03, -8.275774228672378e-03, 8.897423482569292e-03, 1.190597335831751e-02, 1.114130996246700e-02, 4.002756316660057e-03}
		3-0
			{2.214439940203594e-02, -1.620765001022718e-01, -1.550698541621552e-01, -8.614410948559885e-02, -4.395580633861235e-02, 1.374546737352209e-02, 1.108378723153375e-02, 3.295321228781398e-03}
			{-9.841599685018241e-03, -4.840845252424047e-02, -1.596287032727118e-01, -5.038436232949544e-02, 2.253090677208051e-02, 3.391294096498594e-02, 8.946563032253716e-03, -2.899908660396169e-03}
			{1.333969926255264e-01, 4.063115514255446e-02, 8.480695336611623e-02, -1.822153164279781e-01, -8.067141128540208e-02, -4.906694860104737e-02, -8.775811726438111e-03, -1.215097628658241e-02}
			{4.120036799816881e-02, 1.066898531239916e-01, -2.102305252445318e-02, -1.342729952641340e-02, 2.971581638968720e-03, -5.292155360221592e-03, 9.505861235099279e-03, -2.358342230217181e-03}
		3-1
			{1.507901681456176e-01, 4.194007946090928e-03, 1.772949007299360e-02, -1.045535754475542e-02, 2.552564936159765e-02, 3.201707717035177e-02, 2.479276373559804e-02, 6.420888935525423e-03}
			{-6.175582010511983e-02, -9.951194252877395e-02, -2.140976995337353e-01, -6.556400418265369e-02, 2.702351845080376e-02, 7.570964457022154e-02, 3.694475247049417e-02, 1.633987866209761e-02}
			{1.257929262331834e-01, 5.661352779986223e-02, 1.550489574586728e-01, -9.374556548528563e-02, -5.033011937495653e-02, -2.244319237809949e-02, -1.123616280768914e-03, -4.937752237041688e-03}
			{1.027220101926198e-01, 3.241400979711164e-01, 6.691127427477220e-02, 1.256878623637267e-01, 4.776386417911038e-02, 6.740059029567814e-02, 2.774772179577713e-02, 1.691818498735060e-02}
		3-2
			{1.169138639898518e-01, -2.112779298167836e-02, 2.700007783354646e-03, -2.773927756963146e-02, 2.657649286157934e-02, 1.503262003470718e-02, 1.950485924798883e-02, -4.181656575540062e-04}
			{-2.010292579975805e-02, -4.009174881661772e-02, -1.270225264654191e-01, -4.382983997659590e-02, 3.721189761043596e-02, 5.769895397963892e-02, 2.793472175680120e-02, 1.188399094953658e-02}
			{6.995143347593626e-02, -2.673955662795197e-02, 4.521826792834877e-02, -2.143646750847264e-01, -1.340755771439537e-01, -1.536426026103665e-01, -1.001975405840537e-01, -5.406107565588652e-02}
			{1.401287568137060e-01, 2.639413180554897e-01, 1.131066530702663e-01, 7.917227401885152e-02, 5.082692355044494e-02, 3.868205869700996e-02, 1.535199134167186e-02, 4.180880522228243e-03}
		3-3
			{1.064445636466712e-01, -8.088137745857372e-02, -5.554241615820062e-02, -7.459391268245309e-02, -1.147117553472908e-02, 7.385244285699767e-03, 1.803571299981958e-02, 3.295057398633297e-03}
			{-1.016046219072948e-01, -1.720131884051628e-01, -2.923153107389732e-01, -1.396427678324864e-01, -3.662253378952756e-02, 1.977074256688531e-02, 8.650912342225460e-03, 3.159715424088490e-03}
			{5.656524724929238e-02, -1.383024029355628e-01, 7.323059899674206e-02, -1.774216526734520e-01, -3.121354935247286e-02, -3.059666520334580e-02, -6.578065708295494e-03, -1.640481029081558e-02}
			{6.152882066091906e-02, 2.183790010713281e-01, -7.454200422235344e-03, 4.661536176777388e-02, 5.746589111847795e-03, 3.574900112683348e-02, 1.412775152890328e-02, 9.219512953321371e-03}
alpha_moments_count = 350
alpha_index_basic_count = 130
alpha_index_basic = {{0, 0, 0, 0}, {0, 1, 0, 0}, {0, 0, 1, 0}, {0, 0, 0, 1}, {0, 2, 0, 0}, {0, 1, 1, 0}, {0, 1, 0, 1}, {0, 0, 2, 0}, {0, 0, 1, 1}, {0, 0, 0, 2}, {0, 3, 0, 0}, {0, 2, 1, 0}, {0, 2, 0, 1}, {0, 1, 2, 0}, {0, 1, 1, 1}, {0, 1, 0, 2}, {0, 0, 3, 0}, {0, 0, 2, 1}, {0, 0, 1, 2}, {0, 0, 0, 3}, {0, 4, 0, 0}, {0, 3, 1, 0}, {0, 3, 0, 1}, {0, 2, 2, 0}, {0, 2, 1, 1}, {0, 2, 0, 2}, {0, 1, 3, 0}, {0, 1, 2, 1}, {0, 1, 1, 2}, {0, 1, 0, 3}, {0, 0, 4, 0}, {0, 0, 3, 1}, {0, 0, 2, 2}, {0, 0, 1, 3}, {0, 0, 0, 4}, {0, 5, 0, 0}, {0, 4, 1, 0}, {0, 4, 0, 1}, {0, 3, 2, 0}, {0, 3, 1, 1}, {0, 3, 0, 2}, {0, 2, 3, 0}, {0, 2, 2, 1}, {0, 2, 1, 2}, {0, 2, 0, 3}, {0, 1, 4, 0}, {0, 1, 3, 1}, {0, 1, 2, 2}, {0, 1, 1, 3}, {0, 1, 0, 4}, {0, 0, 5, 0}, {0, 0, 4, 1}, {0, 0, 3, 2}, {0, 0, 2, 3}, {0, 0, 1, 4}, {0, 0, 0, 5}, {0, 6, 0, 0}, {0, 5, 1, 0}, {0, 5, 0, 1}, {0, 4, 2, 0}, {0, 4, 1, 1}, {0, 4, 0, 2}, {0, 3, 3, 0}, {0, 3, 2, 1}, {0, 3, 1, 2}, {0, 3, 0, 3}, {0, 2, 4, 0}, {0, 2, 3, 1}, {0, 2, 2, 2}, {0, 2, 1, 3}, {0, 2, 0, 4}, {0, 1, 5, 0}, {0, 1, 4, 1}, {0, 1, 3, 2}, {0, 1, 2, 3}, {0, 1, 1, 4}, {0, 1, 0, 5}, {0, 0, 6, 0}, {0, 0, 5, 1}, {0, 0, 4, 2}, {0, 0, 3, 3}, {0, 0, 2, 4}, {0, 0, 1, 5}, {0, 0, 0, 6}, {1, 0, 0, 0}, {1, 1, 0, 0}, {1, 0, 1, 0}, {1, 0, 0, 1}, {1, 2, 0, 0}, {1, 1, 1, 0}, {1, 1, 0, 1}, {1, 0, 2, 0}, {1, 0, 1, 1}, {1, 0, 0, 2}, {1, 3, 0, 0}, {1, 2, 1, 0}, {1, 2, 0, 1}, {1, 1, 2, 0}, {1, 1, 1, 1}, {1, 1, 0, 2}, {1, 0, 3, 0}, {1, 0, 2, 1}, {1, 0, 1, 2}, {1, 0, 0, 3}, {1, 4, 0, 0}, {1, 3, 1, 0}, {1, 3, 0, 1}, {1, 2, 2, 0}, {1, 2, 1, 1}, {1, 2, 0, 2}, {1, 1, 3, 0}, {1, 1, 2, 1}, {1, 1, 1, 2}, {1, 1, 0, 3}, {1, 0, 4, 0}, {1, 0, 3, 1}, {1, 0, 2, 2}, {1, 0, 1, 3}, {1, 0, 0, 4}, {2, 0, 0, 0}, {2, 1, 0, 0}, {2, 0, 1, 0}, {2, 0, 0, 1}, {2, 2, 0, 0}, {2, 1, 1, 0}, {2, 1, 0, 1}, {2, 0, 2, 0}, {2, 0, 1, 1}, {2, 0, 0, 2}, {3, 0, 0, 0}}
alpha_index_times_count = 969
alpha_index_times = {{0, 0, 1, 130}, {1, 1, 1, 131}, {2, 2, 1, 131}, {3, 3, 1, 131}, {1, 4, 1, 132}, {2, 5, 1, 132}, {3, 6, 1, 132}, {1, 5, 1, 133}, {2, 7, 1, 133}, {3, 8, 1, 133}, {1, 6, 1, 134}, {2, 8, 1, 134}, {3, 9, 1, 134}, {1, 10, 1, 135}, {2, 11, 1, 135}, {3, 12, 1, 135}, {1, 11, 1, 136}, {2, 13, 1, 136}, {3, 14, 1, 136}, {1, 12, 1, 137}, {2, 14, 1, 137}, {3, 15, 1, 137}, {1, 13, 1, 138}, {2, 16, 1, 138}, {3, 17, 1, 138}, {1, 14, 1, 139}, {2, 17, 1, 139}, {3, 18, 1, 139}, {1, 15, 1, 140}, {2, 18, 1, 140}, {3, 19, 1, 140}, {4, 4, 1, 141}, {5, 5, 1, 141}, {6, 6, 1, 141}, {4, 5, 1, 142}, {5, 7, 1, 142}, {6, 8, 1, 142}, {4, 6, 1, 143}, {5, 8, 1, 143}, {6, 9, 1, 143}, {5, 5, 1, 144}, {7, 7, 1, 144}, {8, 8, 1, 144}, {5, 6, 1, 145}, {7, 8, 1, 145}, {8, 9, 1, 145}, {6, 6, 1, 146}, {8, 8, 1, 146}, {9, 9, 1, 146}, {4, 10, 1, 147}, {5, 11, 1, 147}, {6, 12, 1, 147}, {4, 11, 1, 148}, {5, 13, 1, 148}, {6, 14, 1, 148}, {4, 12, 1, 149}, {5, 14, 1, 149}, {6, 15, 1, 149}, {4, 13, 1, 150}, {5, 16, 1, 150}, {6, 17, 1, 150}, {4, 14, 1, 151}, {5, 17, 1, 151}, {6, 18, 1, 151}, {4, 15, 1, 152}, {5, 18, 1, 152}, {6, 19, 1, 152}, {5, 10, 1, 153}, {7, 11, 1, 153}, {8, 12, 1, 153}, {5, 11, 1, 154}, {7, 13, 1, 154}, {8, 14, 1, 154}, {5, 12, 1, 155}, {7, 14, 1, 155}, {8, 15, 1, 155}, {5, 13, 1, 156}, {7, 16, 1, 156}, {8, 17, 1, 156}, {5, 14, 1, 157}, {7, 17, 1, 157}, {8, 18, 1, 157}, {5, 15, 1, 158}, {7, 18, 1, 158}, {8, 19, 1, 158}, {6, 10, 1, 159}, {8, 11, 1, 159}, {9, 12, 1, 159}, {6, 11, 1, 160}, {8, 13, 1, 160}, {9, 14, 1, 160}, {6, 12, 1, 161}, {8, 14, 1, 161}, {9, 15, 1, 161}, {6, 13, 1, 162}, {8, 16, 1, 162}, {9, 17, 1, 162}, {6, 14, 1, 163}, {8, 17, 1, 163}, {9, 18, 1, 163}, {6, 15, 1, 164}, {8, 18, 1, 164}, {9, 19, 1, 164}, {4, 4, 1, 165}, {5, 5, 2, 165}, {6, 6, 2, 165}, {7, 7, 1, 165}, {8, 8, 2, 165}, {9, 9, 1, 165}, {4, 10, 1, 166}, {5, 11, 2, 166}, {6, 12, 2, 166}, {7, 13, 1, 166}, {8, 14, 2, 166}, {9, 15, 1, 166}, {4, 11, 1, 167}, {5, 13, 2, 167}, {6, 14, 2, 167}, {7, 16, 1, 167}, {8, 17, 2, 167}, {9, 18, 1, 167}, {4, 12, 1, 168}, {5, 14, 2, 168}, {6, 15, 2, 168}, {7, 17, 1, 168}, {8, 18, 2, 168}, {9, 19, 1, 168}, {4, 20, 1, 169}, {5, 21, 2, 169}, {6, 22, 2, 169}, {7, 23, 1, 169}, {8, 24, 2, 169}, {9, 25, 1, 169}, {4, 21, 1, 170}, {5, 23, 2, 170}, {6, 24, 2, 170}, {7, 26, 1, 170}, {8, 27, 2, 170}, {9, 28, 1, 170}, {4, 22, 1, 171}, {5, 24, 2, 171}, {6, 25, 2, 171}, {7, 27, 1, 171}, {8, 28, 2, 171}, {9, 29, 1, 171}, {4, 23, 1, 172}, {5, 26, 2, 172}, {6, 27, 2, 172}, {7, 30, 1, 172}, {8, 31, 2, 172}, {9, 32, 1, 172}, {4, 24, 1, 173}, {5, 27, 2, 173}, {6, 28, 2, 173}, {7, 31, 1, 173}, {8, 32, 2, 173}, {9, 33, 1, 173}, {4, 25, 1, 174}, {5, 28, 2, 174}, {6, 29, 2, 174}, {7, 32, 1, 174}, {8, 33, 2, 174}, {9, 34, 1, 174}, {10, 10, 1, 175}, {11, 11, 2, 175}, {12, 12, 2, 175}, {13, 13, 1, 175}, {14, 14, 2, 175}, {15, 15, 1, 175}, {10, 11, 1, 176}, {11, 13, 2, 176}, {12, 14, 2, 176}, {13, 16, 1, 176}, {14, 17, 2, 176}, {15, 18, 1, 176}, {10, 12, 1, 177}, {11, 14, 2, 177}, {12, 15, 2, 177}, {13, 17, 1, 177}, {14, 18, 2, 177}, {15, 19, 1, 177}, {11, 11, 1, 178}, {13, 13, 2, 178}, {14, 14, 2, 178}, {16, 16, 1, 178}, {17, 17, 2, 178}, {18, 18, 1, 178}, {11, 12, 1, 179}, {13, 14, 2, 179}, {14, 15, 2, 179}, {16, 17, 1, 179}, {17, 18, 2, 179}, {18, 19, 1, 179}, {12, 12, 1, 180}, {14, 14, 2, 180}, {15, 15, 2, 180}, {17, 17, 1, 180}, {18, 18, 2, 180}, {19, 19, 1, 180}, {10, 20, 1, 181}, {11, 21, 2, 181}, {12, 22, 2, 181}, {13, 23, 1, 181}, {14, 24, 2, 181}, {15, 25, 1, 181}, {10, 21, 1, 182}, {11, 23, 2, 182}, {12, 24, 2, 182}, {13, 26, 1, 182}, {14, 27, 2, 182}, {15, 28, 1, 182}, {10, 22, 1, 183}, {11, 24, 2, 183}, {12, 25, 2, 183}, {13, 27, 1, 183}, {14, 28, 2, 183}, {15, 29, 1, 183}, {10, 23, 1, 184}, {11, 26, 2, 184}, {12, 27, 2, 184}, {13, 30, 1, 184}, {14, 31, 2, 184}, {15, 32, 1, 184}, {10, 24, 1, 185}, {11, 27, 2, 185}, {12, 28, 2, 185}, {13, 31, 1, 185}, {14, 32, 2, 185}, {15, 33, 1, 185}, {10, 25, 1, 186}, {11, 28, 2, 186}, {12, 29, 2, 186}, {13, 32, 1, 186}, {14, 33, 2, 186}, {15, 34, 1, 186}, {11, 20, 1, 187}, {13, 21, 2, 187}, {14, 22, 2, 187}, {16, 23, 1, 187}, {17, 24, 2, 187}, {18, 25, 1, 187}, {11, 21, 1, 188}, {13, 23, 2, 188}, {14, 24, 2, 188}, {16, 26, 1, 188}, {17, 27, 2, 188}, {18, 28, 1, 188}, {11, 22, 1, 189}, {13, 24, 2, 189}, {14, 25, 2, 189}, {16, 27, 1, 189}, {17, 28, 2, 189}, {18, 29, 1, 189}, {11, 23, 1, 190}, {13, 26, 2, 190}, {14, 27, 2, 190}, {16, 30, 1, 190}, {17, 31, 2, 190}, {18, 32, 1, 190}, {11, 24, 1, 191}, {13, 27, 2, 191}, {14, 28, 2, 191}, {16, 31, 1, 191}, {17, 32, 2, 191}, {18, 33, 1, 191}, {11, 25, 1, 192}, {13, 28, 2, 192}, {14, 29, 2, 192}, {16, 32, 1, 192}, {17, 33, 2, 192}, {18, 34, 1, 192}, {12, 20, 1, 193}, {14, 21, 2, 193}, {15, 22, 2, 193}, {17, 23, 1, 193}, {18, 24, 2, 193}, {19, 25, 1, 193}, {12, 21, 1, 194}, {14, 23, 2, 194}, {15, 24, 2, 194}, {17, 26, 1, 194}, {18, 27, 2, 194}, {19, 28, 1, 194}, {12, 22, 1, 195}, {14, 24, 2, 195}, {15, 25, 2, 195}, {17, 27, 1, 195}, {18, 28, 2, 195}, {19, 29, 1, 195}, {12, 23, 1, 196}, {14, 26, 2, 196}, {15, 27, 2, 196}, {17, 30, 1, 196}, {18, 31, 2, 196}, {19, 32, 1, 196}, {12, 24, 1, 197}, {14, 27, 2, 197}, {15, 28, 2, 197}, {17, 31, 1, 197}, {18, 32, 2, 197}, {19, 33, 1, 197}, {12, 25, 1, 198}, {14, 28, 2, 198}, {15, 29, 2, 198}, {17, 32, 1, 198}, {18, 33, 2, 198}, {19, 34, 1, 198}, {10, 10, 1, 199}, {11, 11, 3, 199}, {12, 12, 3, 199}, {13, 13, 3, 199}, {14, 14, 6, 199}, {15, 15, 3, 199}, {16, 16, 1, 199}, {17, 17, 3, 199}, {18, 18, 3, 199}, {19, 19, 1, 199}, {10, 20, 1, 200}, {11, 21, 3, 200}, {12, 22, 3, 200}, {13, 23, 3, 200}, {14, 24, 6, 200}, {15, 25, 3, 200}, {16, 26, 1, 200}, {17, 27, 3, 200}, {18, 28, 3, 200}, {19, 29, 1, 200}, {10, 21, 1, 201}, {11, 23, 3, 201}, {12, 24, 3, 201}, {13, 26, 3, 201}, {14, 27, 6, 201}, {15, 28, 3, 201}, {16, 30, 1, 201}, {17, 31, 3, 201}, {18, 32, 3, 201}, {19, 33, 1, 201}, {10, 22, 1, 202}, {11, 24, 3, 202}, {12, 25, 3, 202}, {13, 27, 3, 202}, {14, 28, 6, 202}, {15, 29, 3, 202}, {16, 31, 1, 202}, {17, 32, 3, 202}, {18, 33, 3, 202}, {19, 34, 1, 202}, {10, 35, 1, 203}, {11, 36, 3, 203}, {12, 37, 3, 203}, {13, 38, 3, 203}, {14, 39, 6, 203}, {15, 40, 3, 203}, {16, 41, 1, 203}, {17, 42, 3, 203}, {18, 43, 3, 203}, {19, 44, 1, 203}, {10, 36, 1, 204}, {11, 38, 3, 204}, {12, 39, 3, 204}, {13, 41, 3, 204}, {14, 42, 6, 204}, {15, 43, 3, 204}, {16, 45, 1, 204}, {17, 46, 3, 204}, {18, 47, 3, 204}, {19, 48, 1, 204}, {10, 37, 1, 205}, {11, 39, 3, 205}, {12, 40, 3, 205}, {13, 42, 3, 205}, {14, 43, 6, 205}, {15, 44, 3, 205}, {16, 46, 1, 205}, {17, 47, 3, 205}, {18, 48, 3, 205}, {19, 49, 1, 205}, {10, 38, 1, 206}, {11, 41, 3, 206}, {12, 42, 3, 206}, {13, 45, 3, 206}, {14, 46, 6, 206}, {15, 47, 3, 206}, {16, 50, 1, 206}, {17, 51, 3, 206}, {18, 52, 3, 206}, {19, 53, 1, 206}, {10, 39, 1, 207}, {11, 42, 3, 207}, {12, 43, 3, 207}, {13, 46, 3, 207}, {14, 47, 6, 207}, {15, 48, 3, 207}, {16, 51, 1, 207}, {17, 52, 3, 207}, {18, 53, 3, 207}, {19, 54, 1, 207}, {10, 40, 1, 208}, {11, 43, 3, 208}, {12, 44, 3, 208}, {13, 47, 3, 208}, {14, 48, 6, 208}, {15, 49, 3, 208}, {16, 52, 1, 208}, {17, 53, 3, 208}, {18, 54, 3, 208}, {19, 55, 1, 208}, {20, 20, 1, 209}, {21, 21, 3, 209}, {22, 22, 3, 209}, {23, 23, 3, 209}, {24, 24, 6, 209}, {25, 25, 3, 209}, {26, 26, 1, 209}, {27, 27, 3, 209}, {28, 28, 3, 209}, {29, 29, 1, 209}, {20, 21, 1, 210}, {21, 23, 3, 210}, {22, 24, 3, 210}, {23, 26, 3, 210}, {24, 27, 6, 210}, {25, 28, 3, 210}, {26, 30, 1, 210}, {27, 31, 3, 210}, {28, 32, 3, 210}, {29, 33, 1, 210}, {20, 22, 1, 211}, {21, 24, 3, 211}, {22, 25, 3, 211}, {23, 27, 3, 211}, {24, 28, 6, 211}, {25, 29, 3, 211}, {26, 31, 1, 211}, {27, 32, 3, 211}, {28, 33, 3, 211}, {29, 34, 1, 211}, {21, 21, 1, 212}, {23, 23, 3, 212}, {24, 24, 3, 212}, {26, 26, 3, 212}, {27, 27, 6, 212}, {28, 28, 3, 212}, {30, 30, 1, 212}, {31, 31, 3, 212}, {32, 32, 3, 212}, {33, 33, 1, 212}, {21, 22, 1, 213}, {23, 24, 3, 213}, {24, 25, 3, 213}, {26, 27, 3, 213}, {27, 28, 6, 213}, {28, 29, 3, 213}, {30, 31, 1, 213}, {31, 32, 3, 213}, {32, 33, 3, 213}, {33, 34, 1, 213}, {22, 22, 1, 214}, {24, 24, 3, 214}, {25, 25, 3, 214}, {27, 27, 3, 214}, {28, 28, 6, 214}, {29, 29, 3, 214}, {31, 31, 1, 214}, {32, 32, 3, 214}, {33, 33, 3, 214}, {34, 34, 1, 214}, {20, 20, 1, 215}, {21, 21, 4, 215}, {22, 22, 4, 215}, {23, 23, 6, 215}, {24, 24, 12, 215}, {25, 25, 6, 215}, {26, 26, 4, 215}, {27, 27, 12, 215}, {28, 28, 12, 215}, {29, 29, 4, 215}, {30, 30, 1, 215}, {31, 31, 4, 215}, {32, 32, 6, 215}, {33, 33, 4, 215}, {34, 34, 1, 215}, {20, 35, 1, 216}, {21, 36, 4, 216}, {22, 37, 4, 216}, {23, 38, 6, 216}, {24, 39, 12, 216}, {25, 40, 6, 216}, {26, 41, 4, 216}, {27, 42, 12, 216}, {28, 43, 12, 216}, {29, 44, 4, 216}, {30, 45, 1, 216}, {31, 46, 4, 216}, {32, 47, 6, 216}, {33, 48, 4, 216}, {34, 49, 1, 216}, {20, 36, 1, 217}, {21, 38, 4, 217}, {22, 39, 4, 217}, {23, 41, 6, 217}, {24, 42, 12, 217}, {25, 43, 6, 217}, {26, 45, 4, 217}, {27, 46, 12, 217}, {28, 47, 12, 217}, {29, 48, 4, 217}, {30, 50, 1, 217}, {31, 51, 4, 217}, {32, 52, 6, 217}, {33, 53, 4, 217}, {34, 54, 1, 217}, {20, 37, 1, 218}, {21, 39, 4, 218}, {22, 40, 4, 218}, {23, 42, 6, 218}, {24, 43, 12, 218}, {25, 44, 6, 218}, {26, 46, 4, 218}, {27, 47, 12, 218}, {28, 48, 12, 218}, {29, 49, 4, 218}, {30, 51, 1, 218}, {31, 52, 4, 218}, {32, 53, 6, 218}, {33, 54, 4, 218}, {34, 55, 1, 218}, {35, 35, 1, 219}, {36, 36, 5, 219}, {37, 37, 5, 219}, {38, 38, 10, 219}, {39, 39, 20, 219}, {40, 40, 10, 219}, {41, 41, 10, 219}, {42, 42, 30, 219}, {43, 43, 30, 219}, {44, 44, 10, 219}, {45, 45, 5, 219}, {46, 46, 20, 219}, {47, 47, 30, 219}, {48, 48, 20, 219}, {49, 49, 5, 219}, {50, 50, 1, 219}, {51, 51, 5, 219}, {52, 52, 10, 219}, {53, 53, 10, 219}, {54, 54, 5, 219}, {55, 55, 1, 219}, {56, 56, 1, 220}, {57, 57, 6, 220}, {58, 58, 6, 220}, {59, 59, 15, 220}, {60, 60, 30, 220}, {61, 61, 15, 220}, {62, 62, 20, 220}, {63, 63, 60, 220}, {64, 64, 60, 220}, {65, 65, 20, 220}, {66, 66, 15, 220}, {67, 67, 60, 220}, {68, 68, 90, 220}, {69, 69, 60, 220}, {70, 70, 15, 220}, {71, 71, 6, 220}, {72, 72, 30, 220}, {73, 73, 60, 220}, {74, 74, 60, 220}, {75, 75, 30, 220}, {76, 76, 6, 220}, {77, 77, 1, 220}, {78, 78, 6, 220}, {79, 79, 15, 220}, {80, 80, 20, 220}, {81, 81, 15, 220}, {82, 82, 6, 220}, {83, 83, 1, 220}, {0, 84, 1, 221}, {1, 85, 1, 222}, {2, 86, 1, 222}, {3, 87, 1, 222}, {1, 88, 1, 223}, {2, 89, 1, 223}, {3, 90, 1, 223}, {1, 89, 1, 224}, {2, 91, 1, 224}, {3, 92, 1, 224}, {1, 90, 1, 225}, {2, 92, 1, 225}, {3, 93, 1, 225}, {4, 85, 1, 226}, {5, 86, 1, 226}, {6, 87, 1, 226}, {5, 85, 1, 227}, {7, 86, 1, 227}, {8, 87, 1, 227}, {6, 85, 1, 228}, {8, 86, 1, 228}, {9, 87, 1, 228}, {4, 88, 1, 229}, {5, 89, 1, 229}, {6, 90, 1, 229}, {4, 89, 1, 230}, {5, 91, 1, 230}, {6, 92, 1, 230}, {4, 90, 1, 231}, {5, 92, 1, 231}, {6, 93, 1, 231}, {5, 88, 1, 232}, {7, 89, 1, 232}, {8, 90, 1, 232}, {5, 89, 1, 233}, {7, 91, 1, 233}, {8, 92, 1, 233}, {5, 90, 1, 234}, {7, 92, 1, 234}, {8, 93, 1, 234}, {6, 88, 1, 235}, {8, 89, 1, 235}, {9, 90, 1, 235}, {6, 89, 1, 236}, {8, 91, 1, 236}, {9, 92, 1, 236}, {6, 90, 1, 237}, {8, 92, 1, 237}, {9, 93, 1, 237}, {4, 88, 1, 238}, {5, 89, 2, 238}, {6, 90, 2, 238}, {7, 91, 1, 238}, {8, 92, 2, 238}, {9, 93, 1, 238}, {4, 94, 1, 239}, {5, 95, 2, 239}, {6, 96, 2, 239}, {7, 97, 1, 239}, {8, 98, 2, 239}, {9, 99, 1, 239}, {4, 95, 1, 240}, {5, 97, 2, 240}, {6, 98, 2, 240}, {7, 100, 1, 240}, {8, 101, 2, 240}, {9, 102, 1, 240}, {4, 96, 1, 241}, {5, 98, 2, 241}, {6, 99, 2, 241}, {7, 101, 1, 241}, {8, 102, 2, 241}, {9, 103, 1, 241}, {10, 88, 1, 242}, {11, 89, 2, 242}, {12, 90, 2, 242}, {13, 91, 1, 242}, {14, 92, 2, 242}, {15, 93, 1, 242}, {11, 88, 1, 243}, {13, 89, 2, 243}, {14, 90, 2, 243}, {16, 91, 1, 243}, {17, 92, 2, 243}, {18, 93, 1, 243}, {12, 88, 1, 244}, {14, 89, 2, 244}, {15, 90, 2, 244}, {17, 91, 1, 244}, {18, 92, 2, 244}, {19, 93, 1, 244}, {10, 94, 1, 245}, {11, 95, 3, 245}, {12, 96, 3, 245}, {13, 97, 3, 245}, {14, 98, 6, 245}, {15, 99, 3, 245}, {16, 100, 1, 245}, {17, 101, 3, 245}, {18, 102, 3, 245}, {19, 103, 1, 245}, {20, 104, 1, 246}, {21, 105, 4, 246}, {22, 106, 4, 246}, {23, 107, 6, 246}, {24, 108, 12, 246}, {25, 109, 6, 246}, {26, 110, 4, 246}, {27, 111, 12, 246}, {28, 112, 12, 246}, {29, 113, 4, 246}, {30, 114, 1, 246}, {31, 115, 4, 246}, {32, 116, 6, 246}, {33, 117, 4, 246}, {34, 118, 1, 246}, {0, 119, 1, 247}, {1, 120, 1, 248}, {2, 121, 1, 248}, {3, 122, 1, 248}, {4, 123, 1, 249}, {5, 124, 2, 249}, {6, 125, 2, 249}, {7, 126, 1, 249}, {8, 127, 2, 249}, {9, 128, 1, 249}, {0, 129, 1, 250}, {84, 84, 1, 251}, {85, 85, 1, 252}, {86, 86, 1, 252}, {87, 87, 1, 252}, {88, 88, 1, 253}, {89, 89, 2, 253}, {90, 90, 2, 253}, {91, 91, 1, 253}, {92, 92, 2, 253}, {93, 93, 1, 253}, {84, 119, 1, 254}, {0, 130, 1, 255}, {0, 131, 1, 256}, {0, 165, 1, 257}, {0, 199, 1, 258}, {0, 215, 1, 259}, {0, 219, 1, 260}, {1, 132, 1, 261}, {2, 133, 1, 261}, {3, 134, 1, 261}, {1, 135, 1, 262}, {2, 136, 1, 262}, {3, 137, 1, 262}, {1, 136, 1, 263}, {2, 138, 1, 263}, {3, 139, 1, 263}, {1, 137, 1, 264}, {2, 139, 1, 264}, {3, 140, 1, 264}, {1, 141, 1, 265}, {2, 142, 1, 265}, {3, 143, 1, 265}, {1, 142, 1, 266}, {2, 144, 1, 266}, {3, 145, 1, 266}, {1, 143, 1, 267}, {2, 145, 1, 267}, {3, 146, 1, 267}, {1, 166, 1, 268}, {2, 167, 1, 268}, {3, 168, 1, 268}, {1, 169, 1, 269}, {2, 170, 1, 269}, {3, 171, 1, 269}, {1, 170, 1, 270}, {2, 172, 1, 270}, {3, 173, 1, 270}, {1, 171, 1, 271}, {2, 173, 1, 271}, {3, 174, 1, 271}, {1, 175, 1, 272}, {2, 176, 1, 272}, {3, 177, 1, 272}, {1, 176, 1, 273}, {2, 178, 1, 273}, {3, 179, 1, 273}, {1, 177, 1, 274}, {2, 179, 1, 274}, {3, 180, 1, 274}, {1, 200, 1, 275}, {2, 201, 1, 275}, {3, 202, 1, 275}, {1, 216, 1, 276}, {2, 217, 1, 276}, {3, 218, 1, 276}, {4, 141, 1, 277}, {5, 142, 1, 277}, {6, 143, 1, 277}, {4, 142, 1, 278}, {5, 144, 1, 278}, {6, 145, 1, 278}, {4, 143, 1, 279}, {5, 145, 1, 279}, {6, 146, 1, 279}, {5, 141, 1, 280}, {7, 142, 1, 280}, {8, 143, 1, 280}, {5, 142, 1, 281}, {7, 144, 1, 281}, {8, 145, 1, 281}, {5, 143, 1, 282}, {7, 145, 1, 282}, {8, 146, 1, 282}, {6, 141, 1, 283}, {8, 142, 1, 283}, {9, 143, 1, 283}, {6, 142, 1, 284}, {8, 144, 1, 284}, {9, 145, 1, 284}, {6, 143, 1, 285}, {8, 145, 1, 285}, {9, 146, 1, 285}, {4, 166, 1, 286}, {5, 167, 1, 286}, {6, 168, 1, 286}, {5, 166, 1, 287}, {7, 167, 1, 287}, {8, 168, 1, 287}, {6, 166, 1, 288}, {8, 167, 1, 288}, {9, 168, 1, 288}, {4, 169, 1, 289}, {5, 170, 2, 289}, {6, 171, 2, 289}, {7, 172, 1, 289}, {8, 173, 2, 289}, {9, 174, 1, 289}, {4, 203, 1, 290}, {5, 204, 2, 290}, {6, 205, 2, 290}, {7, 206, 1, 290}, {8, 207, 2, 290}, {9, 208, 1, 290}, {4, 141, 1, 291}, {5, 142, 2, 291}, {6, 143, 2, 291}, {7, 144, 1, 291}, {8, 145, 2, 291}, {9, 146, 1, 291}, {4, 147, 1, 292}, {5, 148, 1, 292}, {5, 153, 1, 292}, {6, 149, 1, 292}, {6, 159, 1, 292}, {7, 154, 1, 292}, {8, 155, 1, 292}, {8, 160, 1, 292}, {9, 161, 1, 292}, {4, 148, 1, 293}, {5, 150, 1, 293}, {5, 154, 1, 293}, {6, 151, 1, 293}, {6, 160, 1, 293}, {7, 156, 1, 293}, {8, 157, 1, 293}, {8, 162, 1, 293}, {9, 163, 1, 293}, {4, 149, 1, 294}, {5, 151, 1, 294}, {5, 155, 1, 294}, {6, 152, 1, 294}, {6, 161, 1, 294}, {7, 157, 1, 294}, {8, 158, 1, 294}, {8, 163, 1, 294}, {9, 164, 1, 294}, {4, 175, 1, 295}, {5, 176, 2, 295}, {6, 177, 2, 295}, {7, 178, 1, 295}, {8, 179, 2, 295}, {9, 180, 1, 295}, {4, 209, 1, 296}, {5, 210, 2, 296}, {6, 211, 2, 296}, {7, 212, 1, 296}, {8, 213, 2, 296}, {9, 214, 1, 296}, {10, 181, 1, 297}, {11, 182, 2, 297}, {11, 187, 1, 297}, {12, 183, 2, 297}, {12, 193, 1, 297}, {13, 184, 1, 297}, {13, 188, 2, 297}, {14, 185, 2, 297}, {14, 189, 2, 297}, {14, 194, 2, 297}, {15, 186, 1, 297}, {15, 195, 2, 297}, {16, 190, 1, 297}, {17, 191, 2, 297}, {17, 196, 1, 297}, {18, 192, 1, 297}, {18, 197, 2, 297}, {19, 198, 1, 297}, {0, 221, 1, 298}, {0, 222, 1, 299}, {0, 238, 1, 300}, {0, 245, 1, 301}, {1, 223, 1, 302}, {2, 224, 1, 302}, {3, 225, 1, 302}, {1, 239, 1, 303}, {2, 240, 1, 303}, {3, 241, 1, 303}, {84, 131, 1, 304}, {1, 226, 1, 305}, {2, 227, 1, 305}, {3, 228, 1, 305}, {1, 242, 1, 306}, {2, 243, 1, 306}, {3, 244, 1, 306}, {4, 229, 1, 307}, {5, 230, 1, 307}, {5, 232, 1, 307}, {6, 231, 1, 307}, {6, 235, 1, 307}, {7, 233, 1, 307}, {8, 234, 1, 307}, {8, 236, 1, 307}, {9, 237, 1, 307}, {84, 165, 1, 308}, {85, 166, 1, 309}, {86, 167, 1, 309}, {87, 168, 1, 309}, {84, 199, 1, 310}, {0, 247, 1, 311}, {0, 248, 1, 312}, {119, 131, 1, 313}, {0, 251, 1, 314}, {0, 252, 1, 315}, {84, 222, 1, 316}, {131, 131, 1, 317}, {131, 165, 1, 318}, {131, 199, 1, 319}, {165, 165, 1, 320}, {131, 222, 1, 321}, {0, 255, 1, 322}, {0, 256, 1, 323}, {0, 257, 1, 324}, {0, 258, 1, 325}, {0, 259, 1, 326}, {0, 261, 1, 327}, {0, 268, 1, 328}, {0, 275, 1, 329}, {0, 289, 1, 330}, {0, 291, 1, 331}, {0, 295, 1, 332}, {1, 262, 1, 333}, {2, 263, 1, 333}, {3, 264, 1, 333}, {1, 269, 1, 334}, {2, 270, 1, 334}, {3, 271, 1, 334}, {1, 265, 1, 335}, {2, 266, 1, 335}, {3, 267, 1, 335}, {1, 272, 1, 336}, {2, 273, 1, 336}, {3, 274, 1, 336}, {1, 292, 1, 337}, {2, 293, 1, 337}, {3, 294, 1, 337}, {1, 286, 1, 338}, {2, 287, 1, 338}, {3, 288, 1, 338}, {4, 277, 1, 339}, {5, 278, 1, 339}, {5, 280, 1, 339}, {6, 279, 1, 339}, {6, 283, 1, 339}, {7, 281, 1, 339}, {8, 282, 1, 339}, {8, 284, 1, 339}, {9, 285, 1, 339}, {0, 298, 1, 340}, {0, 299, 1, 341}, {0, 300, 1, 342}, {0, 302, 1, 343}, {0, 304, 1, 344}, {0, 305, 1, 345}, {0, 308, 1, 346}, {84, 261, 1, 347}, {0, 311, 1, 348}, {0, 314, 1, 349}}
alpha_scalar_moments = 92
alpha_moment_mapping = {0, 84, 119, 129, 130, 131, 165, 199, 215, 219, 220, 221, 222, 238, 245, 246, 247, 248, 249, 250, 251, 252, 253, 254, 255, 256, 257, 258, 259, 260, 261, 268, 275, 276, 289, 290, 291, 295, 296, 297, 298, 299, 300, 301, 302, 303, 304, 305, 306, 307, 308, 309, 310, 311, 312, 313, 314, 315, 316, 322, 323, 324, 325, 326, 327, 328, 329, 330, 331, 332, 333, 334, 317, 335, 336, 337, 318, 338, 319, 320, 339, 340, 341, 342, 343, 344, 345, 346, 321, 347, 348, 349}
species_coeffs = {-7.757936792685133e+00, -6.889492532686455e+00, -5.400695108415817e+00, -8.759022870680152e+00}
moment_coeffs = {-1.645598703002850e+01, 2.158959226304401e+01, -3.086264385012072e-01, 1.384071385147721e+01, -9.192320512795742e+00, 2.303781064352133e+01, 7.511416029700361e+01, 3.960315556370165e+01, 3.295029311930269e+01, 4.281872144427424e+00, -1.944907165535104e+01, -4.862295597870745e+00, 2.125854393402674e+01, -7.896543551272380e+01, -3.496883746719562e+01, 6.872996290558381e+00, -4.507004313934754e+00, 9.100856296304446e+00, 3.606304866236488e+00, -1.091660809916167e+01, -1.708498725790229e+01, -1.939657638341327e+00, -5.108598225410827e+00, 6.641597738582325e-01, 1.060565556936964e+01, 1.499716286823586e+00, -7.551332146841101e+00, 1.409076121111359e+00, -4.049712798367014e+01, -1.780810677367203e+01, -4.186462048357854e+01, -6.319776326798065e+01, 7.181972265557302e+01, -2.303213899298654e+00, -3.581920263119108e+01, 2.595149148472886e+01, -5.098102069972884e+01, -1.298493047142486e+02, 5.408587489158560e+01, -1.225360822358489e+01, 1.463158100914499e+01, 1.378834921953062e+00, 6.224805303839921e+01, 1.485853420938867e+01, 3.858838396569787e+00, 1.972067294232445e+01, -2.443097771406256e+01, -7.829213628055720e+01, 2.164958632334516e+01, 1.732901927925174e+01, -7.268106187156101e+01, 9.321817614200018e-01, 6.922809171979875e+00, 5.132422789982947e+00, -4.234355814281997e+00, 2.272370839411426e+00, 1.969354787789548e+01, -8.780563434974737e-01, 6.722028264408593e+00, 7.589148548502830e-02, 1.609975177377682e+01, -3.012396734737138e+00, -1.757309165231786e+01, 1.232720824896820e+00, -1.090077633372452e+01, -3.221576548448046e+01, -3.459306918790362e+01, -1.072000300031149e+01, -2.888731153649139e+01, 8.332872347719358e+01, -7.110582626064384e+00, -3.831476610634260e+01, -1.967274776306090e+01, 4.495022506449314e+01, 2.460695607585662e+01, 6.555519707536345e+01, -1.063298288275807e+01, 4.889076145743939e+01, 1.673317174993439e+01, 3.425031696172940e+01, 4.126245624839721e+01, -1.378125963436708e+01, -1.547413233945007e+01, -1.744706308930349e+01, -5.674495764944305e+00, 9.602900130293870e+00, 5.976915322227393e+01, 5.390975502086197e+01, 7.199072541146676e+00, 2.653213770016617e+00, -1.282021362253856e+00, -5.057339963584174e+00}